digraph Tree {
node [shape=box, style="filled, rounded", color="black", fontname=helvetica] ;
edge [fontname=helvetica] ;
0 [label="Sex <= 0.5\ngini = 0.473\nsamples = 891\nvalue = [549, 342]\nclass = S", fillcolor="#f5cfb4"] ;
1 [label="Pclass <= 2.5\ngini = 0.383\nsamples = 314\nvalue = [81, 233]\nclass = u", fillcolor="#7ebfee"] ;
0 -> 1 [labeldistance=2.5, labelangle=45, headlabel="True"] ;
2 [label="Fare <= 28.856\ngini = 0.1\nsamples = 170\nvalue = [9, 161]\nclass = u", fillcolor="#44a2e6"] ;
1 -> 2 ;
3 [label="Parch <= 1.5\ngini = 0.18\nsamples = 70\nvalue = [7, 63]\nclass = u", fillcolor="#4fa8e8"] ;
2 -> 3 ;
4 [label="SibSp <= 0.5\ngini = 0.206\nsamples = 60\nvalue = [7, 53]\nclass = u", fillcolor="#53aae8"] ;
3 -> 4 ;
5 [label="Parch <= 0.5\ngini = 0.172\nsamples = 42\nvalue = [4, 38]\nclass = u", fillcolor="#4ea7e8"] ;
4 -> 5 ;
6 [label="Pclass <= 1.5\ngini = 0.198\nsamples = 36\nvalue = [4, 32]\nclass = u", fillcolor="#52a9e8"] ;
5 -> 6 ;
7 [label="gini = 0.32\nsamples = 5\nvalue = [1, 4]\nclass = u", fillcolor="#6ab6ec"] ;
6 -> 7 ;
8 [label="Fare <= 13.25\ngini = 0.175\nsamples = 31\nvalue = [3, 28]\nclass = u", fillcolor="#4ea8e8"] ;
6 -> 8 ;
9 [label="Fare <= 12.825\ngini = 0.211\nsamples = 25\nvalue = [3, 22]\nclass = u", fillcolor="#54aae9"] ;
8 -> 9 ;
10 [label="gini = 0.153\nsamples = 12\nvalue = [1, 11]\nclass = u", fillcolor="#4ba6e7"] ;
9 -> 10 ;
11 [label="gini = 0.26\nsamples = 13\nvalue = [2, 11]\nclass = u", fillcolor="#5dafea"] ;
9 -> 11 ;
12 [label="gini = 0.0\nsamples = 6\nvalue = [0, 6]\nclass = u", fillcolor="#399de5"] ;
8 -> 12 ;
13 [label="gini = 0.0\nsamples = 6\nvalue = [0, 6]\nclass = u", fillcolor="#399de5"] ;
5 -> 13 ;
14 [label="Fare <= 25.0\ngini = 0.278\nsamples = 18\nvalue = [3, 15]\nclass = u", fillcolor="#61b1ea"] ;
4 -> 14 ;
15 [label="gini = 0.32\nsamples = 5\nvalue = [1, 4]\nclass = u", fillcolor="#6ab6ec"] ;
14 -> 15 ;
16 [label="Parch <= 0.5\ngini = 0.26\nsamples = 13\nvalue = [2, 11]\nclass = u", fillcolor="#5dafea"] ;
14 -> 16 ;
17 [label="gini = 0.219\nsamples = 8\nvalue = [1, 7]\nclass = u", fillcolor="#55abe9"] ;
16 -> 17 ;
18 [label="gini = 0.32\nsamples = 5\nvalue = [1, 4]\nclass = u", fillcolor="#6ab6ec"] ;
16 -> 18 ;
19 [label="gini = 0.0\nsamples = 10\nvalue = [0, 10]\nclass = u", fillcolor="#399de5"] ;
3 -> 19 ;
20 [label="Parch <= 1.5\ngini = 0.039\nsamples = 100\nvalue = [2, 98]\nclass = u", fillcolor="#3d9fe6"] ;
2 -> 20 ;
21 [label="gini = 0.0\nsamples = 84\nvalue = [0, 84]\nclass = u", fillcolor="#399de5"] ;
20 -> 21 ;
22 [label="Fare <= 135.775\ngini = 0.219\nsamples = 16\nvalue = [2, 14]\nclass = u", fillcolor="#55abe9"] ;
20 -> 22 ;
23 [label="gini = 0.0\nsamples = 9\nvalue = [0, 9]\nclass = u", fillcolor="#399de5"] ;
22 -> 23 ;
24 [label="gini = 0.408\nsamples = 7\nvalue = [2, 5]\nclass = u", fillcolor="#88c4ef"] ;
22 -> 24 ;
25 [label="Fare <= 23.35\ngini = 0.5\nsamples = 144\nvalue = [72, 72]\nclass = S", fillcolor="#ffffff"] ;
1 -> 25 ;
26 [label="Embarked <= 1.5\ngini = 0.484\nsamples = 117\nvalue = [48, 69]\nclass = u", fillcolor="#c3e1f7"] ;
25 -> 26 ;
27 [label="Fare <= 15.621\ngini = 0.417\nsamples = 54\nvalue = [16, 38]\nclass = u", fillcolor="#8cc6f0"] ;
26 -> 27 ;
28 [label="Fare <= 13.935\ngini = 0.454\nsamples = 46\nvalue = [16, 30]\nclass = u", fillcolor="#a3d1f3"] ;
27 -> 28 ;
29 [label="Embarked <= 0.5\ngini = 0.342\nsamples = 32\nvalue = [7, 25]\nclass = u", fillcolor="#70b8ec"] ;
28 -> 29 ;
30 [label="gini = 0.0\nsamples = 6\nvalue = [0, 6]\nclass = u", fillcolor="#399de5"] ;
29 -> 30 ;
31 [label="Fare <= 7.769\ngini = 0.393\nsamples = 26\nvalue = [7, 19]\nclass = u", fillcolor="#82c1ef"] ;
29 -> 31 ;
32 [label="Fare <= 7.744\ngini = 0.444\nsamples = 18\nvalue = [6, 12]\nclass = u", fillcolor="#9ccef2"] ;
31 -> 32 ;
33 [label="gini = 0.48\nsamples = 5\nvalue = [2, 3]\nclass = u", fillcolor="#bddef6"] ;
32 -> 33 ;
34 [label="gini = 0.426\nsamples = 13\nvalue = [4, 9]\nclass = u", fillcolor="#91c9f1"] ;
32 -> 34 ;
35 [label="gini = 0.219\nsamples = 8\nvalue = [1, 7]\nclass = u", fillcolor="#55abe9"] ;
31 -> 35 ;
36 [label="Fare <= 14.852\ngini = 0.459\nsamples = 14\nvalue = [9, 5]\nclass = S", fillcolor="#f3c7a7"] ;
28 -> 36 ;
37 [label="gini = 0.245\nsamples = 7\nvalue = [6, 1]\nclass = S", fillcolor="#e9965a"] ;
36 -> 37 ;
38 [label="gini = 0.49\nsamples = 7\nvalue = [3, 4]\nclass = u", fillcolor="#cee6f8"] ;
36 -> 38 ;
39 [label="gini = 0.0\nsamples = 8\nvalue = [0, 8]\nclass = u", fillcolor="#399de5"] ;
27 -> 39 ;
40 [label="Fare <= 10.825\ngini = 0.5\nsamples = 63\nvalue = [32, 31]\nclass = S", fillcolor="#fefbf9"] ;
26 -> 40 ;
41 [label="Fare <= 7.988\ngini = 0.482\nsamples = 37\nvalue = [22, 15]\nclass = S", fillcolor="#f7d7c0"] ;
40 -> 41 ;
42 [label="Fare <= 7.7\ngini = 0.495\nsamples = 20\nvalue = [9, 11]\nclass = u", fillcolor="#dbedfa"] ;
41 -> 42 ;
43 [label="gini = 0.32\nsamples = 5\nvalue = [1, 4]\nclass = u", fillcolor="#6ab6ec"] ;
42 -> 43 ;
44 [label="Fare <= 7.91\ngini = 0.498\nsamples = 15\nvalue = [8, 7]\nclass = S", fillcolor="#fcefe6"] ;
42 -> 44 ;
45 [label="Fare <= 7.815\ngini = 0.48\nsamples = 10\nvalue = [6, 4]\nclass = S", fillcolor="#f6d5bd"] ;
44 -> 45 ;
46 [label="gini = 0.48\nsamples = 5\nvalue = [3, 2]\nclass = S", fillcolor="#f6d5bd"] ;
45 -> 46 ;
47 [label="gini = 0.48\nsamples = 5\nvalue = [3, 2]\nclass = S", fillcolor="#f6d5bd"] ;
45 -> 47 ;
48 [label="gini = 0.48\nsamples = 5\nvalue = [2, 3]\nclass = u", fillcolor="#bddef6"] ;
44 -> 48 ;
49 [label="Fare <= 9.706\ngini = 0.36\nsamples = 17\nvalue = [13, 4]\nclass = S", fillcolor="#eda876"] ;
41 -> 49 ;
50 [label="Fare <= 8.767\ngini = 0.42\nsamples = 10\nvalue = [7, 3]\nclass = S", fillcolor="#f0b78e"] ;
49 -> 50 ;
51 [label="gini = 0.32\nsamples = 5\nvalue = [4, 1]\nclass = S", fillcolor="#eca06a"] ;
50 -> 51 ;
52 [label="gini = 0.48\nsamples = 5\nvalue = [3, 2]\nclass = S", fillcolor="#f6d5bd"] ;
50 -> 52 ;
53 [label="gini = 0.245\nsamples = 7\nvalue = [6, 1]\nclass = S", fillcolor="#e9965a"] ;
49 -> 53 ;
54 [label="Fare <= 17.6\ngini = 0.473\nsamples = 26\nvalue = [10, 16]\nclass = u", fillcolor="#b5daf5"] ;
40 -> 54 ;
55 [label="SibSp <= 0.5\ngini = 0.305\nsamples = 16\nvalue = [3, 13]\nclass = u", fillcolor="#67b4eb"] ;
54 -> 55 ;
56 [label="gini = 0.0\nsamples = 6\nvalue = [0, 6]\nclass = u", fillcolor="#399de5"] ;
55 -> 56 ;
57 [label="Fare <= 15.975\ngini = 0.42\nsamples = 10\nvalue = [3, 7]\nclass = u", fillcolor="#8ec7f0"] ;
55 -> 57 ;
58 [label="gini = 0.48\nsamples = 5\nvalue = [2, 3]\nclass = u", fillcolor="#bddef6"] ;
57 -> 58 ;
59 [label="gini = 0.32\nsamples = 5\nvalue = [1, 4]\nclass = u", fillcolor="#6ab6ec"] ;
57 -> 59 ;
60 [label="Fare <= 20.387\ngini = 0.42\nsamples = 10\nvalue = [7, 3]\nclass = S", fillcolor="#f0b78e"] ;
54 -> 60 ;
61 [label="gini = 0.32\nsamples = 5\nvalue = [4, 1]\nclass = S", fillcolor="#eca06a"] ;
60 -> 61 ;
62 [label="gini = 0.48\nsamples = 5\nvalue = [3, 2]\nclass = S", fillcolor="#f6d5bd"] ;
60 -> 62 ;
63 [label="Fare <= 32.881\ngini = 0.198\nsamples = 27\nvalue = [24, 3]\nclass = S", fillcolor="#e89152"] ;
25 -> 63 ;
64 [label="Fare <= 30.2\ngini = 0.278\nsamples = 18\nvalue = [15, 3]\nclass = S", fillcolor="#ea9a61"] ;
63 -> 64 ;
65 [label="Parch <= 1.5\ngini = 0.165\nsamples = 11\nvalue = [10, 1]\nclass = S", fillcolor="#e88e4d"] ;
64 -> 65 ;
66 [label="gini = 0.32\nsamples = 5\nvalue = [4, 1]\nclass = S", fillcolor="#eca06a"] ;
65 -> 66 ;
67 [label="gini = 0.0\nsamples = 6\nvalue = [6, 0]\nclass = S", fillcolor="#e58139"] ;
65 -> 67 ;
68 [label="gini = 0.408\nsamples = 7\nvalue = [5, 2]\nclass = S", fillcolor="#efb388"] ;
64 -> 68 ;
69 [label="gini = 0.0\nsamples = 9\nvalue = [9, 0]\nclass = S", fillcolor="#e58139"] ;
63 -> 69 ;
70 [label="Fare <= 26.269\ngini = 0.306\nsamples = 577\nvalue = [468, 109]\nclass = S", fillcolor="#eb9e67"] ;
0 -> 70 [labeldistance=2.5, labelangle=-45, headlabel="False"] ;
71 [label="Parch <= 0.5\ngini = 0.226\nsamples = 415\nvalue = [361, 54]\nclass = S", fillcolor="#e99457"] ;
70 -> 71 ;
72 [label="Embarked <= 0.5\ngini = 0.184\nsamples = 380\nvalue = [341, 39]\nclass = S", fillcolor="#e88f50"] ;
71 -> 72 ;
73 [label="Fare <= 7.227\ngini = 0.278\nsamples = 42\nvalue = [35, 7]\nclass = S", fillcolor="#ea9a61"] ;
72 -> 73 ;
74 [label="gini = 0.153\nsamples = 12\nvalue = [11, 1]\nclass = S", fillcolor="#e78c4b"] ;
73 -> 74 ;
75 [label="Fare <= 14.158\ngini = 0.32\nsamples = 30\nvalue = [24, 6]\nclass = S", fillcolor="#eca06a"] ;
73 -> 75 ;
76 [label="Fare <= 8.279\ngini = 0.363\nsamples = 21\nvalue = [16, 5]\nclass = S", fillcolor="#eda877"] ;
75 -> 76 ;
77 [label="Fare <= 7.562\ngini = 0.305\nsamples = 16\nvalue = [13, 3]\nclass = S", fillcolor="#eb9e67"] ;
76 -> 77 ;
78 [label="gini = 0.298\nsamples = 11\nvalue = [9, 2]\nclass = S", fillcolor="#eb9d65"] ;
77 -> 78 ;
79 [label="gini = 0.32\nsamples = 5\nvalue = [4, 1]\nclass = S", fillcolor="#eca06a"] ;
77 -> 79 ;
80 [label="gini = 0.48\nsamples = 5\nvalue = [3, 2]\nclass = S", fillcolor="#f6d5bd"] ;
76 -> 80 ;
81 [label="gini = 0.198\nsamples = 9\nvalue = [8, 1]\nclass = S", fillcolor="#e89152"] ;
75 -> 81 ;
82 [label="Fare <= 7.746\ngini = 0.171\nsamples = 338\nvalue = [306, 32]\nclass = S", fillcolor="#e88e4e"] ;
72 -> 82 ;
83 [label="Fare <= 7.196\ngini = 0.086\nsamples = 67\nvalue = [64, 3]\nclass = S", fillcolor="#e68742"] ;
82 -> 83 ;
84 [label="Pclass <= 2.5\ngini = 0.139\nsamples = 40\nvalue = [37, 3]\nclass = S", fillcolor="#e78b49"] ;
83 -> 84 ;
85 [label="gini = 0.0\nsamples = 12\nvalue = [12, 0]\nclass = S", fillcolor="#e58139"] ;
84 -> 85 ;
86 [label="Fare <= 7.01\ngini = 0.191\nsamples = 28\nvalue = [25, 3]\nclass = S", fillcolor="#e89051"] ;
84 -> 86 ;
87 [label="Fare <= 6.344\ngini = 0.26\nsamples = 13\nvalue = [11, 2]\nclass = S", fillcolor="#ea985d"] ;
86 -> 87 ;
88 [label="gini = 0.32\nsamples = 5\nvalue = [4, 1]\nclass = S", fillcolor="#eca06a"] ;
87 -> 88 ;
89 [label="gini = 0.219\nsamples = 8\nvalue = [7, 1]\nclass = S", fillcolor="#e99355"] ;
87 -> 89 ;
90 [label="Fare <= 7.09\ngini = 0.124\nsamples = 15\nvalue = [14, 1]\nclass = S", fillcolor="#e78a47"] ;
86 -> 90 ;
91 [label="gini = 0.0\nsamples = 10\nvalue = [10, 0]\nclass = S", fillcolor="#e58139"] ;
90 -> 91 ;
92 [label="gini = 0.32\nsamples = 5\nvalue = [4, 1]\nclass = S", fillcolor="#eca06a"] ;
90 -> 92 ;
93 [label="gini = 0.0\nsamples = 27\nvalue = [27, 0]\nclass = S", fillcolor="#e58139"] ;
83 -> 93 ;
94 [label="Fare <= 13.25\ngini = 0.191\nsamples = 271\nvalue = [242, 29]\nclass = S", fillcolor="#e89051"] ;
82 -> 94 ;
95 [label="Fare <= 7.91\ngini = 0.214\nsamples = 221\nvalue = [194, 27]\nclass = S", fillcolor="#e99355"] ;
94 -> 95 ;
96 [label="Fare <= 7.865\ngini = 0.156\nsamples = 82\nvalue = [75, 7]\nclass = S", fillcolor="#e78d4b"] ;
95 -> 96 ;
97 [label="Fare <= 7.763\ngini = 0.249\nsamples = 48\nvalue = [41, 7]\nclass = S", fillcolor="#e9975b"] ;
96 -> 97 ;
98 [label="gini = 0.188\nsamples = 19\nvalue = [17, 2]\nclass = S", fillcolor="#e89050"] ;
97 -> 98 ;
99 [label="Fare <= 7.798\ngini = 0.285\nsamples = 29\nvalue = [24, 5]\nclass = S", fillcolor="#ea9b62"] ;
97 -> 99 ;
100 [label="Fare <= 7.785\ngini = 0.332\nsamples = 19\nvalue = [15, 4]\nclass = S", fillcolor="#eca36e"] ;
99 -> 100 ;
101 [label="gini = 0.26\nsamples = 13\nvalue = [11, 2]\nclass = S", fillcolor="#ea985d"] ;
100 -> 101 ;
102 [label="gini = 0.444\nsamples = 6\nvalue = [4, 2]\nclass = S", fillcolor="#f2c09c"] ;
100 -> 102 ;
103 [label="gini = 0.18\nsamples = 10\nvalue = [9, 1]\nclass = S", fillcolor="#e88f4f"] ;
99 -> 103 ;
104 [label="gini = 0.0\nsamples = 34\nvalue = [34, 0]\nclass = S", fillcolor="#e58139"] ;
96 -> 104 ;
105 [label="Fare <= 7.988\ngini = 0.246\nsamples = 139\nvalue = [119, 20]\nclass = S", fillcolor="#e9965a"] ;
95 -> 105 ;
106 [label="gini = 0.473\nsamples = 13\nvalue = [8, 5]\nclass = S", fillcolor="#f5d0b5"] ;
105 -> 106 ;
107 [label="Fare <= 8.135\ngini = 0.21\nsamples = 126\nvalue = [111, 15]\nclass = S", fillcolor="#e99254"] ;
105 -> 107 ;
108 [label="gini = 0.245\nsamples = 42\nvalue = [36, 6]\nclass = S", fillcolor="#e9965a"] ;
107 -> 108 ;
109 [label="Fare <= 9.492\ngini = 0.191\nsamples = 84\nvalue = [75, 9]\nclass = S", fillcolor="#e89051"] ;
107 -> 109 ;
110 [label="Fare <= 8.831\ngini = 0.083\nsamples = 23\nvalue = [22, 1]\nclass = S", fillcolor="#e68742"] ;
109 -> 110 ;
111 [label="Fare <= 8.658\ngini = 0.117\nsamples = 16\nvalue = [15, 1]\nclass = S", fillcolor="#e78946"] ;
110 -> 111 ;
112 [label="gini = 0.0\nsamples = 6\nvalue = [6, 0]\nclass = S", fillcolor="#e58139"] ;
111 -> 112 ;
113 [label="gini = 0.18\nsamples = 10\nvalue = [9, 1]\nclass = S", fillcolor="#e88f4f"] ;
111 -> 113 ;
114 [label="gini = 0.0\nsamples = 7\nvalue = [7, 0]\nclass = S", fillcolor="#e58139"] ;
110 -> 114 ;
115 [label="Fare <= 9.673\ngini = 0.228\nsamples = 61\nvalue = [53, 8]\nclass = S", fillcolor="#e99457"] ;
109 -> 115 ;
116 [label="gini = 0.346\nsamples = 9\nvalue = [7, 2]\nclass = S", fillcolor="#eca572"] ;
115 -> 116 ;
117 [label="Fare <= 12.762\ngini = 0.204\nsamples = 52\nvalue = [46, 6]\nclass = S", fillcolor="#e89153"] ;
115 -> 117 ;
118 [label="Fare <= 11.0\ngini = 0.153\nsamples = 24\nvalue = [22, 2]\nclass = S", fillcolor="#e78c4b"] ;
117 -> 118 ;
119 [label="gini = 0.198\nsamples = 18\nvalue = [16, 2]\nclass = S", fillcolor="#e89152"] ;
118 -> 119 ;
120 [label="gini = 0.0\nsamples = 6\nvalue = [6, 0]\nclass = S", fillcolor="#e58139"] ;
118 -> 120 ;
121 [label="gini = 0.245\nsamples = 28\nvalue = [24, 4]\nclass = S", fillcolor="#e9965a"] ;
117 -> 121 ;
122 [label="Fare <= 22.887\ngini = 0.077\nsamples = 50\nvalue = [48, 2]\nclass = S", fillcolor="#e68641"] ;
94 -> 122 ;
123 [label="gini = 0.0\nsamples = 29\nvalue = [29, 0]\nclass = S", fillcolor="#e58139"] ;
122 -> 123 ;
124 [label="SibSp <= 0.5\ngini = 0.172\nsamples = 21\nvalue = [19, 2]\nclass = S", fillcolor="#e88e4e"] ;
122 -> 124 ;
125 [label="gini = 0.0\nsamples = 12\nvalue = [12, 0]\nclass = S", fillcolor="#e58139"] ;
124 -> 125 ;
126 [label="gini = 0.346\nsamples = 9\nvalue = [7, 2]\nclass = S", fillcolor="#eca572"] ;
124 -> 126 ;
127 [label="Fare <= 19.481\ngini = 0.49\nsamples = 35\nvalue = [20, 15]\nclass = S", fillcolor="#f8e0ce"] ;
71 -> 127 ;
128 [label="Fare <= 14.873\ngini = 0.495\nsamples = 20\nvalue = [9, 11]\nclass = u", fillcolor="#dbedfa"] ;
127 -> 128 ;
129 [label="Fare <= 9.825\ngini = 0.463\nsamples = 11\nvalue = [7, 4]\nclass = S", fillcolor="#f4c9aa"] ;
128 -> 129 ;
130 [label="gini = 0.32\nsamples = 5\nvalue = [4, 1]\nclass = S", fillcolor="#eca06a"] ;
129 -> 130 ;
131 [label="gini = 0.5\nsamples = 6\nvalue = [3, 3]\nclass = S", fillcolor="#ffffff"] ;
129 -> 131 ;
132 [label="gini = 0.346\nsamples = 9\nvalue = [2, 7]\nclass = u", fillcolor="#72b9ec"] ;
128 -> 132 ;
133 [label="Parch <= 1.5\ngini = 0.391\nsamples = 15\nvalue = [11, 4]\nclass = S", fillcolor="#eeaf81"] ;
127 -> 133 ;
134 [label="Fare <= 24.808\ngini = 0.32\nsamples = 10\nvalue = [8, 2]\nclass = S", fillcolor="#eca06a"] ;
133 -> 134 ;
135 [label="gini = 0.0\nsamples = 5\nvalue = [5, 0]\nclass = S", fillcolor="#e58139"] ;
134 -> 135 ;
136 [label="gini = 0.48\nsamples = 5\nvalue = [3, 2]\nclass = S", fillcolor="#f6d5bd"] ;
134 -> 136 ;
137 [label="gini = 0.48\nsamples = 5\nvalue = [3, 2]\nclass = S", fillcolor="#f6d5bd"] ;
133 -> 137 ;
138 [label="SibSp <= 2.5\ngini = 0.448\nsamples = 162\nvalue = [107, 55]\nclass = S", fillcolor="#f2c29f"] ;
70 -> 138 ;
139 [label="Fare <= 26.775\ngini = 0.475\nsamples = 139\nvalue = [85, 54]\nclass = S", fillcolor="#f6d1b7"] ;
138 -> 139 ;
140 [label="gini = 0.475\nsamples = 18\nvalue = [7, 11]\nclass = u", fillcolor="#b7dbf6"] ;
139 -> 140 ;
141 [label="Fare <= 28.75\ngini = 0.458\nsamples = 121\nvalue = [78, 43]\nclass = S", fillcolor="#f3c6a6"] ;
139 -> 141 ;
142 [label="gini = 0.0\nsamples = 9\nvalue = [9, 0]\nclass = S", fillcolor="#e58139"] ;
141 -> 142 ;
143 [label="Fare <= 30.598\ngini = 0.473\nsamples = 112\nvalue = [69, 43]\nclass = S", fillcolor="#f5d0b4"] ;
141 -> 143 ;
144 [label="Embarked <= 1.0\ngini = 0.459\nsamples = 14\nvalue = [5, 9]\nclass = u", fillcolor="#a7d3f3"] ;
143 -> 144 ;
145 [label="gini = 0.5\nsamples = 6\nvalue = [3, 3]\nclass = S", fillcolor="#ffffff"] ;
144 -> 145 ;
146 [label="gini = 0.375\nsamples = 8\nvalue = [2, 6]\nclass = u", fillcolor="#7bbeee"] ;
144 -> 146 ;
147 [label="Fare <= 52.277\ngini = 0.453\nsamples = 98\nvalue = [64, 34]\nclass = S", fillcolor="#f3c4a2"] ;
143 -> 147 ;
148 [label="Fare <= 39.3\ngini = 0.339\nsamples = 37\nvalue = [29, 8]\nclass = S", fillcolor="#eca470"] ;
147 -> 148 ;
149 [label="Fare <= 35.25\ngini = 0.423\nsamples = 23\nvalue = [16, 7]\nclass = S", fillcolor="#f0b890"] ;
148 -> 149 ;
150 [label="Fare <= 31.798\ngini = 0.153\nsamples = 12\nvalue = [11, 1]\nclass = S", fillcolor="#e78c4b"] ;
149 -> 150 ;
151 [label="gini = 0.32\nsamples = 5\nvalue = [4, 1]\nclass = S", fillcolor="#eca06a"] ;
150 -> 151 ;
152 [label="gini = 0.0\nsamples = 7\nvalue = [7, 0]\nclass = S", fillcolor="#e58139"] ;
150 -> 152 ;
153 [label="SibSp <= 0.5\ngini = 0.496\nsamples = 11\nvalue = [5, 6]\nclass = u", fillcolor="#deeffb"] ;
149 -> 153 ;
154 [label="gini = 0.444\nsamples = 6\nvalue = [2, 4]\nclass = u", fillcolor="#9ccef2"] ;
153 -> 154 ;
155 [label="gini = 0.48\nsamples = 5\nvalue = [3, 2]\nclass = S", fillcolor="#f6d5bd"] ;
153 -> 155 ;
156 [label="Fare <= 51.931\ngini = 0.133\nsamples = 14\nvalue = [13, 1]\nclass = S", fillcolor="#e78b48"] ;
148 -> 156 ;
157 [label="gini = 0.0\nsamples = 9\nvalue = [9, 0]\nclass = S", fillcolor="#e58139"] ;
156 -> 157 ;
158 [label="gini = 0.32\nsamples = 5\nvalue = [4, 1]\nclass = S", fillcolor="#eca06a"] ;
156 -> 158 ;
159 [label="Fare <= 59.087\ngini = 0.489\nsamples = 61\nvalue = [35, 26]\nclass = S", fillcolor="#f8dfcc"] ;
147 -> 159 ;
160 [label="Fare <= 56.198\ngini = 0.43\nsamples = 16\nvalue = [5, 11]\nclass = u", fillcolor="#93caf1"] ;
159 -> 160 ;
161 [label="gini = 0.49\nsamples = 7\nvalue = [3, 4]\nclass = u", fillcolor="#cee6f8"] ;
160 -> 161 ;
162 [label="gini = 0.346\nsamples = 9\nvalue = [2, 7]\nclass = u", fillcolor="#72b9ec"] ;
160 -> 162 ;
163 [label="Fare <= 75.115\ngini = 0.444\nsamples = 45\nvalue = [30, 15]\nclass = S", fillcolor="#f2c09c"] ;
159 -> 163 ;
164 [label="SibSp <= 0.5\ngini = 0.165\nsamples = 11\nvalue = [10, 1]\nclass = S", fillcolor="#e88e4d"] ;
163 -> 164 ;
165 [label="gini = 0.32\nsamples = 5\nvalue = [4, 1]\nclass = S", fillcolor="#eca06a"] ;
164 -> 165 ;
166 [label="gini = 0.0\nsamples = 6\nvalue = [6, 0]\nclass = S", fillcolor="#e58139"] ;
164 -> 166 ;
167 [label="Parch <= 1.5\ngini = 0.484\nsamples = 34\nvalue = [20, 14]\nclass = S", fillcolor="#f7d9c4"] ;
163 -> 167 ;
168 [label="Embarked <= 0.5\ngini = 0.453\nsamples = 26\nvalue = [17, 9]\nclass = S", fillcolor="#f3c4a2"] ;
167 -> 168 ;
169 [label="Fare <= 98.752\ngini = 0.492\nsamples = 16\nvalue = [9, 7]\nclass = S", fillcolor="#f9e3d3"] ;
168 -> 169 ;
170 [label="gini = 0.469\nsamples = 8\nvalue = [3, 5]\nclass = u", fillcolor="#b0d8f5"] ;
169 -> 170 ;
171 [label="gini = 0.375\nsamples = 8\nvalue = [6, 2]\nclass = S", fillcolor="#eeab7b"] ;
169 -> 171 ;
172 [label="Fare <= 86.737\ngini = 0.32\nsamples = 10\nvalue = [8, 2]\nclass = S", fillcolor="#eca06a"] ;
168 -> 172 ;
173 [label="gini = 0.0\nsamples = 5\nvalue = [5, 0]\nclass = S", fillcolor="#e58139"] ;
172 -> 173 ;
174 [label="gini = 0.48\nsamples = 5\nvalue = [3, 2]\nclass = S", fillcolor="#f6d5bd"] ;
172 -> 174 ;
175 [label="gini = 0.469\nsamples = 8\nvalue = [3, 5]\nclass = u", fillcolor="#b0d8f5"] ;
167 -> 175 ;
176 [label="Fare <= 35.538\ngini = 0.083\nsamples = 23\nvalue = [22, 1]\nclass = S", fillcolor="#e68742"] ;
138 -> 176 ;
177 [label="gini = 0.198\nsamples = 9\nvalue = [8, 1]\nclass = S", fillcolor="#e89152"] ;
176 -> 177 ;
178 [label="gini = 0.0\nsamples = 14\nvalue = [14, 0]\nclass = S", fillcolor="#e58139"] ;
176 -> 178 ;
}